#include <float.h>
#include <stddef.h>

const static size_t I2H_WEIGHT_T_ROWS = 89;
const static size_t I2H_WEIGHT_T_COLS = 32;
const static float I2H_WEIGHT_DATA[] = {0.21206699311733246, -0.07252726703882217, -0.04063186049461365, -0.06740106642246246, -0.6421217918395996, -0.6767622828483582, 0.11685723811388016, -0.39829790592193604, -0.34448280930519104, -0.052520912140607834, 0.5977901220321655, 0.1578279733657837, 0.4427652657032013, 0.46250119805336, 0.5845677852630615, 0.11124958842992783, 0.3219795823097229, 0.12970209121704102, 0.3999873697757721, -0.3255808353424072, 0.2852328419685364, -0.24899351596832275, 0.009134559892117977, 0.7836349606513977, -0.4761466383934021, -0.7192699909210205, -0.8154001832008362, 0.043903108686208725, -0.0685870498418808, -0.04161679372191429, -0.09025783091783524, 0.6067322492599487, -0.015063684433698654, 0.1721818745136261, 0.14594589173793793, 0.18437601625919342, 0.11549229919910431, 0.13449382781982422, 0.5911036729812622, 0.19110111892223358, 0.3373294770717621, 0.0358925387263298, 0.2521510124206543, -0.2251642793416977, 0.6092693209648132, 0.08419545739889145, 0.38065603375434875, 0.08390472829341888, -0.20031198859214783, 0.15477006137371063, 0.1573798805475235, -0.1782311499118805, 0.03504873439669609, 0.3528704047203064, 0.2552013099193573, -0.34803423285484314, -0.3417905867099762, -0.12242346256971359, -0.11492639034986496, -0.04342710226774216, -0.1579715460538864, -0.2661450505256653, 0.13906359672546387, -0.12618444859981537, 0.8114278316497803, 0.4573889672756195, 0.794000506401062, 0.027861114591360092, 0.025305185467004776, 0.23375961184501648, -0.20435060560703278, 0.051506854593753815, -0.6346143484115601, -0.0367535725235939, -0.4673755168914795, -0.5392085909843445, 0.45589107275009155, -0.11350592970848083, -0.02241186611354351, 0.06488385051488876, 0.12098539620637894, -0.00010804421617649496, 0.29277753829956055, 0.011891056783497334, -0.014676665887236595, 0.2994511127471924, 0.0475275032222271, 0.37658119201660156, 0.20430193841457367, 0.046800531446933746, 0.17810232937335968, -0.22336924076080322, 0.05850357934832573, -0.682590663433075, 0.2671085596084595, 0.001703121466562152, 0.1701311320066452, 0.36488810181617737, -0.12416493147611618, 0.41288501024246216, 0.1976163685321808, 0.4068900942802429, 0.107480987906456, -0.1833799183368683, 0.3328693211078644, 0.24791203439235687, 0.002816903404891491, -0.2626400887966156, 0.46875929832458496, -0.008209049701690674, -0.08924508839845657, 0.41352036595344543, -0.7220476865768433, 0.2588222026824951, 0.22914449870586395, 0.15305140614509583, -0.15244761109352112, -0.024512693285942078, 0.18243739008903503, -0.08380085974931717, 0.2522982954978943, -0.23071135580539703, 0.37719202041625977, -0.20478445291519165, -0.11574961990118027, -0.3404909670352936, 0.21753591299057007, -0.6531594395637512, 0.39381834864616394, -0.1554895043373108, 0.01650168187916279, 0.07282618433237076, 0.12251927703619003, 0.01225500088185072, -0.45567047595977783, -0.26433467864990234, 0.5239314436912537, -0.7790067791938782, 0.00774089340120554, 0.18669955432415009, 0.2611658275127411, 0.09214191883802414, -0.46045708656311035, 0.29560256004333496, -0.36674514412879944, 0.3194965422153473, -0.1357703059911728, -0.10702122002840042, -0.16067557036876678, -0.6745337843894958, -0.7782977819442749, 0.2827817499637604, -0.13174445927143097, -0.20083816349506378, -0.47193992137908936, 0.08231332153081894, 0.5919539332389832, 0.4400321841239929, -0.016977345570921898, 0.6571098566055298, 0.269144207239151, 0.29405879974365234, 0.08479288220405579, 0.18466919660568237, 0.07383900135755539, 0.1925792247056961, 0.5047652721405029, 0.5359946489334106, -0.006973862648010254, 0.031740833073854446, 0.09759780019521713, -0.03059362806379795, 0.1844744086265564, 0.0724649503827095, 0.20529215037822723, -0.09222736209630966, 0.2616715133190155, -0.22129464149475098, 0.08962348848581314, -0.12749944627285004, 0.14487390220165253, 0.29198703169822693, 0.6311905384063721, -0.34732794761657715, -0.08798952400684357, 0.10122330486774445, 0.5411949753761292, 0.029110273346304893, -0.20966318249702454, -0.3990108370780945, 0.026134798303246498, -0.46930861473083496, -0.5589562654495239, 0.5593953728675842, -0.4751144349575043, -0.07369139790534973, 0.20503289997577667, 0.3188849091529846, -0.21242275834083557, 0.280594140291214, -0.28921857476234436, 0.1956193745136261, -0.6149582862854004, -0.33404341340065, 0.3837006688117981, 0.010223393328487873, -0.06082966923713684, -0.6583523154258728, -0.16875380277633667, 0.13592277467250824, 0.4560900628566742, -0.027128728106617928, -0.09486528486013412, -0.16633881628513336, -0.3192342221736908, -0.023606183007359505, -0.05353229120373726, 0.23228976130485535, 0.24306894838809967, -0.10505855083465576, -0.5013868808746338, 0.2676560580730438, 0.2786695957183838, 0.40198758244514465, -0.556678831577301, -0.18569549918174744, -0.7711387276649475, 0.0003009643405675888, 0.70106041431427, 0.23173341155052185, 0.0011892791371792555, -0.19037240743637085, 0.008791574276983738, 0.24027803540229797, 0.07011522352695465, -0.06026501581072807, -0.30051282048225403, 0.4717499911785126, 0.27138644456863403, -0.12524040043354034, 0.3040412962436676, -0.14038650691509247, 0.20186209678649902, -0.04781906679272652, 0.26859158277511597, 0.06121496483683586, 0.3746536672115326, 0.09966304898262024, 0.05186561867594719, -0.2769722640514374, 0.7632622718811035, -0.28734904527664185, -0.20139360427856445, -0.18689057230949402, 0.6349006295204163, 0.17676162719726562, 0.548095166683197, 0.6234296560287476, -0.5198108553886414, 0.011421744711697102, -0.4704751968383789, -0.6832223534584045, -0.4873323142528534, 0.9565863609313965, 0.17222830653190613, -0.24475958943367004, 0.49669182300567627, 0.28219369053840637, -0.03736147657036781, 0.7689834833145142, 0.3126475512981415, -0.1077718660235405, 0.22506709396839142, -0.2790403962135315, 0.3457041084766388, 0.0580015704035759, -0.30994313955307007, -0.32665178179740906, 0.4310363531112671, 0.08518697321414948, -0.17065638303756714, -0.3067414164543152, -1.2996599674224854, 0.17425496876239777, -0.5175681710243225, 0.23076818883419037, -0.2530687749385834, 0.5034694671630859, 0.10637803375720978, -0.05224025622010231, 0.006354900076985359, -0.27364492416381836, 0.17061302065849304, -0.0575096420943737, 0.20059944689273834, -0.1255001425743103, 0.3840399384498596, 0.30835703015327454, -0.05129197612404823, 0.1774200201034546, -0.04113919287919998, -0.33021628856658936, -0.3234094977378845, 0.3161715865135193, 0.09215155243873596, 0.08171554654836655, 0.29534879326820374, -0.3094378709793091, 0.1140323206782341, 0.09063445776700974, -0.2202083170413971, -0.22258736193180084, 0.26995840668678284, 0.30676934123039246, 0.2805621027946472, 0.21557733416557312, -0.0510166734457016, 0.19635599851608276, 0.08489400893449783, -0.18388666212558746, -0.2222658395767212, 0.32470980286598206, 0.03954588994383812, -0.41613325476646423, 0.21415702998638153, 0.08330712467432022, 0.1150316447019577, -0.47634026408195496, 0.8002462387084961, 0.8173823356628418, -0.7973173260688782, 0.08471871167421341, -0.6602773666381836, -0.21988371014595032, 1.00700044631958, 0.16569477319717407, 0.613308310508728, -0.3054894506931305, 1.139564871788025, -1.0785150527954102, -0.7516582608222961, 0.3110671043395996, 0.2471604347229004, -0.6577571034431458, 1.0028979778289795, 0.6987987756729126, 0.3906485438346863, 0.3105359375476837, -0.3696344494819641, -0.24489833414554596, 0.04382776841521263, -0.22372554242610931, 0.2049747258424759, 0.1896824836730957, 0.21453283727169037, 0.6695178151130676, -0.11793804913759232, -0.33458125591278076, 0.10011319071054459, 0.11196587234735489, -0.41755419969558716, 0.08752245455980301, -0.6236192584037781, -0.4180537760257721, 0.2647797167301178, -0.6961078643798828, 0.10968121886253357, 0.5139060020446777, -0.4678070843219757, -0.045877087861299515, 0.4020974934101105, -0.29599252343177795, -0.12009120732545853, -0.2850041091442108, -0.007314648479223251, 0.5015594959259033, 0.013329879380762577, -0.02169923298060894, 0.5289012789726257, -0.26604101061820984, 0.06829297542572021, -0.4166305363178253, 0.07044101506471634, -0.27673211693763733, -0.1400495320558548, 0.1542419046163559, -0.18094362318515778, -0.22351376712322235, 0.6408063769340515, 0.07704964280128479, 0.08399118483066559, 0.7854349613189697, 0.19821235537528992, 0.12712028622627258, 0.23657859861850739, 0.14525824785232544, 0.44613802433013916, 0.026371454820036888, 0.042707495391368866, 0.36458468437194824, -0.013030651025474072, 0.19664637744426727, 0.23988312482833862, -0.001274918089620769, 0.284053236246109, -0.037612881511449814, -0.3292754292488098, -0.3972108066082001, 0.06450673192739487, 0.316243439912796, 0.07061018794775009, 0.2784404754638672, -0.14468659460544586, 0.022796759381890297, 0.35822793841362, -0.37030068039894104, -0.017799824476242065, 0.7749215960502625, -0.007148003205657005, -0.007625927682965994, 0.6486493349075317, 0.1948121190071106, -0.6106036901473999, 0.032213401049375534, -0.5370212197303772, -0.27354270219802856, -0.38663625717163086, -0.3324373960494995, -0.03956696018576622, 0.002384729916229844, -0.10852774232625961, 0.2717600464820862, -0.3412623703479767, -0.18756607174873352, -0.2303967922925949, -0.4159252345561981, 0.43995702266693115, -0.1258992999792099, -0.2719305753707886, -0.16877290606498718, 0.3562266528606415, -0.20894232392311096, 0.6063374876976013, -0.30327120423316956, 0.3706670105457306, 0.4930395483970642, 0.11077684164047241, -0.09413707256317139, 0.07347476482391357, -0.34267333149909973, -0.17091652750968933, 0.14352935552597046, -0.9032627940177917, -0.47875097393989563, -0.4175529181957245, 0.05568031966686249, 0.07034087926149368, -0.1496119499206543, 0.5195546746253967, 0.15058253705501556, 0.14428594708442688, 0.7453189492225647, 0.12883149087429047, -0.009687047451734543, 0.5481595993041992, -0.04448482021689415, 0.017295783385634422, -0.16533207893371582, 1.082005500793457, -0.150422602891922, -0.7173741459846497, 0.672290563583374, -0.22206634283065796, 0.04480012133717537, -1.094113826751709, 0.2570374310016632, -0.7295774221420288, 0.11130821704864502, -0.4344697594642639, 0.7406032085418701, 0.5495544672012329, 0.5204153656959534, 0.38894569873809814, -0.014020201750099659, -0.011943621560931206, 0.29249775409698486, 0.0663498193025589, 0.3067402243614197, 0.1462467759847641, 0.0005051259649917483, -0.3124781548976898, -0.25546932220458984, 0.3411235809326172, -0.1750466525554657, 0.10064645111560822, -0.028971215710043907, -0.01755533367395401, -0.07225864380598068, 0.353791207075119, 0.04160965606570244, 0.08127443492412567, -0.07929931581020355, -0.20698662102222443, 0.03968937695026398, 0.18827563524246216, 0.1540226936340332, 0.5001668334007263, 0.6096700429916382, 0.2745661437511444, -0.021426178514957428, 0.11293584108352661, -0.2666839063167572, 0.13308189809322357, 0.17485207319259644, 0.02791622281074524, 0.25034743547439575, -0.027086902409791946, 0.2772257328033447, -0.009834101423621178, 0.0683382973074913, -0.18506459891796112, -0.2942029535770416, -0.01095648668706417, -0.13978442549705505, 0.2991350591182709, -0.08724083006381989, 0.06426186114549637, 0.000724301440641284, -0.11364887654781342, 0.05048591271042824, 0.01523617934435606, 0.12916742265224457, 0.09238920360803604, -0.110518679022789, -0.14559099078178406, -0.02789015881717205, -0.22797346115112305, 0.06176954507827759, -0.11536163091659546, 0.21543677151203156, 0.17693328857421875, -0.14243286848068237, -0.1040913388133049, -0.16799576580524445, 0.35153019428253174, -0.0006873828824609518, -0.10407992452383041, 0.5879640579223633, -0.05383814498782158, 0.587968111038208, 0.40352845191955566, 0.2330864667892456, 0.28525811433792114, 0.04738859087228775, 0.08510388433933258, -0.5054894685745239, 0.5667062997817993, -0.6004846692085266, -0.06845955550670624, 0.32016709446907043, -0.434446781873703, 0.0059695253148674965, -0.11381323635578156, -0.09312599152326584, -0.046239323914051056, -0.05107840895652771, -0.12691707909107208, -0.09954529255628586, -0.16629716753959656, -0.40684011578559875, 0.45288902521133423, 0.08094868808984756, 0.16615206003189087, 0.3158111870288849, 0.46311819553375244, -0.25003018975257874, -0.4493659436702728, -0.3292216956615448, 0.6926689147949219, -0.2932046353816986, 0.1470664143562317, -0.789879560470581, 0.8175866007804871, -0.05502070114016533, 0.5601168870925903, -0.5340539813041687, 0.20297379791736603, -0.21433162689208984, 0.16353973746299744, -0.027713097631931305, 0.1972140520811081, 0.8915479779243469, -0.8444283604621887, -0.3468583822250366, 0.027515573427081108, 0.2472163587808609, 0.35261592268943787, 0.17275646328926086, -0.4020087718963623, -0.046538177877664566, -0.22959662973880768, -0.0649024173617363, -0.309530109167099, 0.4265909194946289, -0.14310860633850098, 0.03425871208310127, 0.5607190728187561, -0.3492628335952759, -0.010554672218859196, 0.25062936544418335, 0.40361183881759644, 0.6398274898529053, -0.370384156703949, 0.1663779318332672, 0.5036312341690063, -0.07746757566928864, -0.017319930717349052, -0.010296612977981567, -0.2367110550403595, 0.5775861144065857, 0.272575318813324, -0.21194171905517578, -0.31188374757766724, 0.44842126965522766, -0.759538471698761, -0.16477233171463013, -0.10049572587013245, -0.11085546761751175, 0.10368862003087997, 0.27493900060653687, -0.31977543234825134, -0.0768394023180008, 0.6876187920570374, -0.02483254298567772, 0.27368807792663574, 0.25195440649986267, 0.3218911588191986, 0.16059738397598267, 0.24167121946811676, -0.2042003571987152, 0.3430030345916748, -0.47589388489723206, -0.07120291143655777, -0.06416629999876022, 0.10875212401151657, 0.2162635624408722, 0.27759310603141785, 0.34454986453056335, -0.02861785516142845, -0.33321505784988403, 0.2509068250656128, 0.6234465837478638, 0.3234322965145111, 0.8413234353065491, -0.568568766117096, 0.09840483218431473, 0.10871855914592743, -0.07804669439792633, 0.14006009697914124, 0.37253063917160034, -0.5669630765914917, -0.22443325817584991, -0.24828357994556427, 0.35465532541275024, -0.06754694133996964, -0.10788420587778091, -0.5567113757133484, 0.6000877618789673, 0.37441104650497437, 0.41539502143859863, 0.04655751585960388, 0.8876093626022339, 0.4200059473514557, 0.8111581802368164, 0.014584855176508427, 0.7159683704376221, -0.2061786949634552, 0.30967068672180176, 0.8615116477012634, 0.08609693497419357, -0.2249176949262619, -1.0775140523910522, 0.10915028303861618, -0.5955647826194763, -0.46509647369384766, -0.10680271685123444, 0.5488187074661255, -0.7694361805915833, 0.867735743522644, -0.044335536658763885, -0.36936312913894653, -0.5993689298629761, 0.6513468623161316, -0.05937322974205017, -0.06858465820550919, -0.04096309468150139, 0.12177019566297531, 0.6796581745147705, 1.1777429580688477, -0.24426458775997162, 0.08058017492294312, -0.38142871856689453, -1.3173491954803467, -0.335096150636673, 0.1373753398656845, 0.2852085828781128, 0.10946784913539886, -0.3418854773044586, 0.09807049483060837, -0.1571994423866272, -0.07850473374128342, -0.2467149794101715, 0.36684805154800415, 0.5700531601905823, -0.36171042919158936, 0.35344913601875305, -0.5821510553359985, -0.3790111541748047, -0.5847684741020203, -0.0797136127948761, -0.5059071183204651, -0.16450056433677673, 0.03781495988368988, -0.03134577348828316, -0.06807000190019608, 0.20546741783618927, -0.2675594687461853, -0.22418510913848877, 0.49433478713035583, -0.05435704439878464, 0.5069109797477722, 0.056234151124954224, -0.7164809107780457, 0.12209846824407578, 0.02359563671052456, -0.02151852287352085, 0.10601452738046646, 0.1484007090330124, 0.18783429265022278, 0.10888335853815079, -0.06211316958069801, 0.18028540909290314, 0.0576324388384819, 0.0783349871635437, 0.08293963968753815, -0.06636297702789307, 0.010988764464855194, 0.02229246124625206, 0.03079511784017086, -0.09769902378320694, -0.3603057861328125, 0.33926987648010254, -0.4218783378601074, 0.10005458444356918, -0.12857243418693542, 0.15629234910011292, -0.24304093420505524, 0.025688158348202705, -0.3449208438396454, 0.0046850391663610935, 0.13906510174274445, 0.08299381285905838, 0.0009887419873848557, 0.3214285373687744, 0.5042086839675903, 0.07889374345541, -0.09918830543756485, -0.25461676716804504, -0.2711777985095978, 0.08664435148239136, -0.26640084385871887, 0.40832704305648804, 0.9278042912483215, 0.06513694673776627, 0.23581980168819427, -0.9544032216072083, 0.5110951662063599, 0.1548640877008438, 0.0905575379729271, 0.4294237792491913, -0.29477161169052124, 0.5243102312088013, 0.2309219241142273, 0.16021718084812164, -0.27963927388191223, 0.2387661635875702, 0.04612727463245392, 0.12041004747152328, -0.24024683237075806, -0.061359990388154984, 0.12380243837833405, -0.07999435067176819, 0.9502856135368347, -0.30606549978256226, 0.4305277168750763, -0.6754473447799683, 0.03787701576948166, -0.47407642006874084, -0.2568277418613434, -0.304609477519989, 0.4262678623199463, -0.2401965856552124, 0.7925832271575928, -0.3177989423274994, -0.7100921273231506, -0.13038110733032227, 0.5232177972793579, 0.14354640245437622, -0.02358379028737545, 0.8675550818443298, -0.32724860310554504, 0.2148144245147705, 0.09841310232877731, -0.3295404016971588, -0.44037505984306335, 0.13796885311603546, -0.28611671924591064, 0.20357780158519745, 0.48772644996643066, -0.7761653661727905, 0.34385478496551514, 0.7061864137649536, -0.26126953959465027, 0.25850269198417664, -0.3150889575481415, -0.13827578723430634, -0.32428717613220215, 0.5081635117530823, -0.47925353050231934, -0.5821312069892883, -0.6336587071418762, -0.044661033898591995, -0.2116509974002838, -0.259577214717865, 0.1544773429632187, -0.03154737874865532, 0.009946982376277447, 0.17165426909923553, 0.0438675619661808, -0.3846382796764374, 0.04347587749361992, -0.0722857192158699, -0.20729713141918182, 0.04369860142469406, -0.15183420479297638, 0.1519516408443451, 0.12533535063266754, 0.4009615182876587, 0.2667054235935211, 0.16273283958435059, -0.09643986821174622, 0.3103511929512024, 0.27010318636894226, -0.2130950689315796, 0.24880139529705048, 0.17747245728969574, -0.40299034118652344, -0.2964136302471161, -0.5349284410476685, -0.28514692187309265, 0.2151160091161728, 0.18953444063663483, 0.2040211707353592, 0.3456289768218994, -0.36286941170692444, -0.16485294699668884, -0.1315234750509262, -0.02193499356508255, 0.013311422429978848, -0.08214577287435532, 0.08241891115903854, 0.13961884379386902, 0.1566973328590393, 0.07440738379955292, 0.2718870937824249, 0.013709570281207561, -0.27839577198028564, -0.4078391492366791, -0.1212090253829956, 0.11040770262479782, 0.010898482985794544, -0.02256523258984089, 0.058067869395017624, 0.22834056615829468, -0.29247695207595825, 0.14904989302158356, 0.23246225714683533, -0.18875554203987122, -0.3902812600135803, -0.19683174788951874, 0.1716124564409256, 0.24052584171295166, 0.1491503268480301, 0.02550380676984787, 0.11652904748916626, 0.23393923044204712, 0.1747598797082901, -0.07710585743188858, 0.24189616739749908, 0.1299542635679245, -0.13430804014205933, -0.023986807093024254, -0.41685035824775696, -0.26070713996887207, -0.3346603810787201, -0.32724887132644653, 0.048713330179452896, -0.5444880127906799, 0.09054058790206909, -0.10868529975414276, 0.11691255122423172, -0.2694638967514038, -0.04896966740489006, -0.0522039420902729, -0.4978085458278656, 0.3797597587108612, -0.14205525815486908, -0.10856020450592041, -0.15298813581466675, 0.08488509804010391, -0.16412846744060516, -0.15621346235275269, 0.06556851416826248, -0.21807228028774261, 0.22862975299358368, -0.33492472767829895, -0.16783861815929413, -0.27568015456199646, -0.2621527314186096, -0.3588288426399231, -0.04869969189167023, 0.09666658937931061, -0.2104451060295105, 0.05550030991435051, 0.027617741376161575, 0.04662483185529709, -0.26250436902046204, -0.08724258840084076, 0.3248947858810425, -0.22300812602043152, 0.09639859199523926, -0.0710853859782219, 0.045059554278850555, -0.08550576120615005, -0.13167600333690643, 0.026286300271749496, -0.4021146893501282, 0.18968240916728973, -0.05446220561861992, 0.09472250938415527, 0.28620225191116333, 0.07026878744363785, -0.2830924689769745, -0.28466182947158813, -0.019561946392059326, -0.20196855068206787, 0.23475176095962524, 0.08799995481967926, 0.2486886829137802, 0.5372012257575989, -0.23748083412647247, 0.0228137020021677, -0.16991952061653137, 0.16346925497055054, 0.06917271763086319, -0.05392785742878914, -0.024163926020264626, 0.0005221263272687793, -0.00742843933403492, -0.11198391020298004, 0.09745391458272934, 0.029433896765112877, 0.1204778254032135, 0.025936823338270187, 0.11889362335205078, 0.1012798473238945, 0.030214767903089523, 0.03866726532578468, 0.03539236634969711, -0.012832951731979847, -0.0031794337555766106, 0.04513133689761162, 0.08239302039146423, 0.011335959658026695, -0.07145439088344574, 0.014712330885231495, -0.011896327137947083, -0.08504177629947662, 0.07281964272260666, 0.05676696449518204, 0.12884856760501862, 0.06187249347567558, -0.07938805222511292, -0.09798514097929001, -0.08873098343610764, -0.09827739000320435, -0.03512081131339073, -0.11023327708244324, -0.14572693407535553, -0.0017251314129680395, -0.2539841830730438, 0.015475970692932606, 0.015317318961024284, -0.24477717280387878, 0.10521047562360764, -0.03942537307739258, -0.0016034019645303488, -0.10448042303323746, 0.02935349941253662, 0.01704057864844799, -0.13485902547836304, 0.17729151248931885, -0.2596300542354584, -0.11919387429952621, -0.011439311318099499, -0.020842187106609344, -0.11183988302946091, 0.00880348403006792, 0.003752274438738823, -0.03990777209401131, 0.10620775073766708, -0.028801023960113525, 0.059619978070259094, -0.05930749699473381, -0.25296589732170105, -0.1806776374578476, -0.06350403279066086, -0.17907769978046417, 0.027388427406549454, -0.31447404623031616, -0.12578853964805603, -0.24922879040241241, 0.17789922654628754, 0.14977812767028809, -0.14407868683338165, -0.2165229171514511, -0.13069124519824982, -0.20956262946128845, -0.06416086852550507, -0.2213190495967865, 0.033574167639017105, -0.14890451729297638, -0.33907654881477356, 0.20239612460136414, -0.3570687472820282, 0.03791822865605354, 0.15895818173885345, -0.13247418403625488, -0.2217065393924713, 0.014714694581925869, -0.2859131991863251, -0.22245052456855774, 0.2745765149593353, 0.07346485555171967, -0.146657794713974, -0.17920197546482086, -0.20590567588806152, -0.0890992060303688, -0.10405471920967102, -0.46427348256111145, 0.07168237864971161, -0.15554407238960266, -0.11590242385864258, -0.05941768363118172, 0.1198219433426857, 0.158014178276062, -0.19792142510414124, 0.3923283815383911, -0.43701469898223877, -0.12883755564689636, -0.3143148422241211, -0.34809619188308716, 0.09562676399946213, 0.08088400214910507, -0.08361422270536423, -0.13167589902877808, -0.02977888099849224, -0.044051412492990494, 0.2656843364238739, 0.029147502034902573, 0.1581469178199768, 0.22504526376724243, 0.18789136409759521, -0.3496202528476715, -0.07402583211660385, 0.09408189356327057, -0.00647572660818696, -0.1536606401205063, -0.2856709659099579, -0.19956058263778687, -0.2987000346183777, -0.0738716796040535, 0.14702191948890686, -0.1161128580570221, 0.18516510725021362, -0.00047100312076509, 0.09034895896911621, 0.1697864532470703, 0.2723170518875122, 0.46625635027885437, 0.13709600269794464, 0.4078071713447571, -0.01358694490045309, 0.149315744638443, 0.02590641751885414, 0.002804080955684185, 0.18089301884174347, -0.2132241278886795, 0.09964852780103683, 0.06054935231804848, 0.10147631168365479, 0.022190062329173088, 0.19050666689872742, -0.0741870179772377, -0.15999117493629456, -0.17801815271377563, -0.23253294825553894, 0.3104219436645508, 0.2946823537349701, 0.3255213797092438, 0.0026413395535200834, -0.03329528868198395, 0.003224828513339162, -0.23390088975429535, -0.0015522860921919346, -0.1612047702074051, -0.11565416306257248, 0.017739225178956985, 0.19388613104820251, 0.39587685465812683, -0.019381750375032425, 0.01510100532323122, -0.453635573387146, -0.463031142950058, -0.19053615629673004, -0.3149474263191223, 0.08872748166322708, -0.18437737226486206, -0.15265177190303802, -0.0016279981937259436, -0.22561775147914886, -0.01718292199075222, -0.033926017582416534, -0.13209140300750732, 0.09870364516973495, 0.35149893164634705, 0.16477112472057343, 0.1304611712694168, -0.05191100016236305, -0.24574142694473267, -0.4100092351436615, -0.3309362530708313, -0.21216899156570435, -0.08752992004156113, -0.2165452241897583, -0.32986485958099365, 0.1352400779724121, -0.1378442645072937, 0.09398753941059113, -0.13197432458400726, 0.4230464696884155, 0.42445769906044006, -0.26855388283729553, 0.592729389667511, -0.6118132472038269, -0.0755835771560669, -0.1615293174982071, -0.03082001954317093, 0.17616285383701324, -0.22874219715595245, 0.0685698539018631, -0.20155206322669983, 0.24824513494968414, 0.15194480121135712, 0.13860930502414703, 0.024114293977618217, 0.18867886066436768, 0.13436879217624664, -0.04023989289999008, 0.24073956906795502, -0.30351823568344116, 0.13649651408195496, -0.024491021409630775, -0.2268289178609848, 0.24129313230514526, -0.10200472176074982, 0.12349358946084976, 0.03869776055216789, 0.022708263248205185, 0.26531556248664856, -0.16083472967147827, -0.10899177938699722, 0.0692959725856781, -0.26184314489364624, 0.20773401856422424, 0.16215215623378754, -0.010273001156747341, 0.08357523381710052, 0.11402049660682678, -0.3358725309371948, 0.21246184408664703, 0.3558346927165985, -0.3603084981441498, 0.10581298172473907, -0.12521761655807495, -0.00040478695882484317, 0.09370114654302597, -0.13616059720516205, -0.40781542658805847, 0.29941871762275696, -0.019458284601569176, -0.3516632616519928, 0.5108640789985657, 0.03412775695323944, -0.0441269613802433, 0.40977776050567627, -0.1030629351735115, -0.13845627009868622, -0.10574933886528015, -0.24807745218276978, 0.007459686603397131, -0.13822858035564423, -0.3086063861846924, 0.03870352357625961, -0.12073706090450287, -0.10984807461500168, 0.08966168761253357, -0.0087687773630023, -0.33628830313682556, -0.2613290548324585, -0.0547649972140789, -0.4065994322299957, 0.03453638404607773, -0.08074107021093369, -0.399732768535614, 0.1266406774520874, -0.29461419582366943, 0.07564083486795425, 0.18046289682388306, -0.14752882719039917, -0.14389054477214813, 0.21756531298160553, -0.0009151265257969499, -0.06407671421766281, 0.19713234901428223, 0.06825079023838043, -0.024414490908384323, -0.24647758901119232, -0.28006669878959656, -0.3535071909427643, -0.26734820008277893, 0.009724367409944534, 0.045648518949747086, -0.06531590968370438, -0.1507328450679779, -0.11422648280858994, -0.2543034255504608, 0.06402221322059631, -0.03412811830639839, 0.0968705266714096, -0.43059495091438293, 0.09513908624649048, -0.014112990349531174, -0.08097190409898758, 0.06140371412038803, -0.05226429924368858, -0.18126827478408813, 0.14465008676052094, -0.118171826004982, -0.15345057845115662, 0.3486785590648651, 0.13312624394893646, -0.11189039051532745, -0.33492323756217957, -0.16904546320438385, -0.047104671597480774, -0.09364553540945053, 0.02042629010975361, -0.03818931430578232, -0.014189096167683601, -0.37083980441093445, -0.18834412097930908, -0.15302973985671997, 0.4399699568748474, 0.09396093338727951, 0.08033342659473419, -0.11273495852947235, 0.05348611995577812, -0.38583579659461975, -0.24538671970367432, 0.2453785091638565, 0.06410065293312073, 0.015363011509180069, 0.5361345410346985, 0.25739166140556335, -0.238518625497818, 0.0002576574042905122, 0.07066135853528976, 0.07573514431715012, 0.13053420186042786, 0.031195569783449173, 0.05684030428528786, 0.32256969809532166, 0.23204778134822845, -0.026690343394875526, -0.22489474713802338, -0.07090898603200912, -0.23211275041103363, 0.10914964973926544, 0.0838596299290657, 0.07572881877422333, 0.35678014159202576, -0.007707471027970314, -0.06834878772497177, 0.08437591046094894, 0.06694621592760086, 0.014510183595120907, 0.007769913412630558, -0.04127905145287514, -0.04126033931970596, -0.23672731220722198, -0.14426028728485107, 0.1966601014137268, -0.25892558693885803, 0.08285819739103317, 0.2032162845134735, -0.22522379457950592, -0.003011752152815461, -0.09375613927841187, 0.029826423153281212, -0.32717379927635193, 0.08543699234724045, -0.061702433973550797, 0.06289058923721313, -0.01240414846688509, -0.11003924161195755, -0.027529465034604073, -0.09189008176326752, -0.05966830253601074, -0.08559537678956985, 0.06507827341556549, 0.06338288635015488, 0.12145867943763733, 0.1974707394838333, -0.2540033161640167, -0.3581782579421997, -0.10815491527318954, -0.2296181619167328, 0.11328273266553879, -0.192808136343956, -0.051421280950307846, -0.18369333446025848, -0.07223357260227203, 0.18563875555992126, 0.10791581124067307, -0.17797832190990448, -0.12499865144491196, -0.021472781896591187, -0.16402530670166016, -0.2865624725818634, -0.10869701951742172, 0.006214876659214497, -0.36462700366973877, 0.21125569939613342, -0.342884361743927, -0.0743691697716713, 0.21039433777332306, -0.05875037983059883, -0.13218286633491516, -0.10248482972383499, -0.058585334569215775, -0.12120648473501205, 0.05888386443257332, 0.1727515161037445, 0.045680511742830276, -0.027149587869644165, 0.22944608330726624, 0.24716870486736298, 0.11657997965812683, 0.09790367633104324, -0.1073865070939064, 0.22457373142242432, -0.6791527271270752, 0.2199133187532425, -0.26452088356018066, -0.36560940742492676, -0.3168047070503235, -0.4275824725627899, -0.062169432640075684, -0.27729350328445435, -0.1895953118801117, -0.07234327495098114, -0.052078429609537125, -0.06573592126369476, -0.3700101375579834, 0.4119884669780731, -0.15411117672920227, 0.119388647377491, -0.20163306593894958, 0.2944405972957611, -0.09090409427881241, 0.4572674632072449, -0.03380853682756424, 0.09861373901367188, 0.2975156307220459, -0.1389155387878418, -0.12210986018180847, -0.3161488175392151, 0.23534896969795227, -0.26582127809524536, -0.011676682159304619, -0.3573514521121979, -0.17286159098148346, 0.0024841949343681335, -0.13264836370944977, -0.2480485439300537, 0.1033896952867508, 0.35888782143592834, -0.27530035376548767, 0.06419115513563156, -0.2686450481414795, -0.24511437118053436, -0.1351553350687027, 0.16333594918251038, 0.10653053224086761, -0.060323093086481094, -0.22569230198860168, 0.16385450959205627, 0.15818242728710175, -0.23114602267742157, 0.1675168126821518, 0.36216801404953003, -0.1926516741514206, -0.12055167555809021, -0.07487543672323227, 0.09735643863677979, -0.007649775128811598, 0.009371164254844189, -0.10027696937322617, -0.3437066376209259, -0.38062337040901184, -0.5310715436935425, -0.10066432505846024, -0.11527382582426071, 0.04082661122083664, -0.25653767585754395, 0.15052710473537445, 0.06938768923282623, -0.3204176723957062, -0.007884648628532887, 0.6270583271980286, 0.3715744614601135, 0.1176200732588768, 0.2472696304321289, 0.09439045935869217, -0.5191969871520996, 0.21136178076267242, -0.11298131942749023, -0.4405208230018616, 0.03887273371219635, -0.11181534826755524, 0.009012714959681034, 0.3001914918422699, -0.37849727272987366, -0.10942748188972473, -0.17967866361141205, -0.19878336787223816, -0.4359380900859833, 0.02786082960665226, 0.28254812955856323, 0.3482185900211334, 0.6335271000862122, -0.03763477876782417, 0.03337516263127327, -0.06761999428272247, 0.08405611664056778, 0.07722516357898712, -0.10104276984930038, -0.00395564129576087, 0.019959554076194763, -0.01956319808959961, -0.01124484185129404, 0.0060937413945794106, 0.0315212607383728, 0.00724952295422554, 0.03455661982297897, 0.09536291658878326, 0.10698997229337692, 0.06509360671043396, -0.020207969471812248, 0.1156085729598999, 0.017031505703926086, 0.027120472863316536, 0.016532612964510918, -0.04061691090464592, -0.054403625428676605, 0.07790569216012955, -0.04523061215877533, -0.05840930715203285, -0.029391886666417122, -0.010572952218353748, -0.05084981396794319, 0.06934156268835068, -0.037959594279527664, 0.020118655636906624, -0.2083161473274231, 0.1768258959054947, 0.08961275219917297, -0.1679770052433014, 0.15547126531600952, 0.11442543566226959, 0.06185775622725487, -0.0973879024386406, 0.014424999244511127, 0.23357996344566345, 0.0699228048324585, 0.1478758305311203, 0.016422148793935776, -0.039223261177539825, -0.2944459021091461, -0.0034095649607479572, 0.2584953010082245, -0.3035268485546112, -0.005997779313474894, 0.13117167353630066, 0.019728008657693863, 0.12636756896972656, -0.17931272089481354, -0.18399618566036224, -0.18090227246284485, 0.20239455997943878, -0.028659945353865623, 0.17709825932979584, -0.17001982033252716, 0.28337422013282776, 0.4643198251724243, -0.04452335089445114, 0.08489751070737839, 0.19762910902500153, -0.37826675176620483, 0.26250171661376953, -0.16559316217899323, -0.17853166162967682, 0.011957505717873573, 0.13635338842868805, 0.0851016491651535, -0.3388051688671112, -0.08779842406511307, -0.3716137707233429, -0.46263587474823, -0.14698490500450134, 0.010371135547757149, 0.10566764324903488, -0.05112573131918907, -0.08957339823246002, 0.0290173701941967, -0.24870727956295013, 0.10855395346879959, -0.02811787649989128, -0.04131278395652771, 0.0297144316136837, 0.33068880438804626, -0.01819099485874176, 0.04066415876150131, 0.0041565243154764175, 0.021806174889206886, -0.26189830899238586, -0.4702182710170746, -0.033664703369140625, -0.3402058780193329, -0.14742054045200348, -0.331769734621048, -0.09434482455253601, -0.15167230367660522, -0.029011674225330353, -0.23158635199069977, 0.14414504170417786, 0.23601621389389038, -0.09700586646795273, -0.06261921674013138, -0.12859630584716797, 0.020272236317396164, 0.00029652839293703437, -0.13950331509113312, 0.1241464763879776, -0.1433008313179016, -0.2563309371471405, 0.22657790780067444, -0.2805823087692261, -0.05857513099908829, 0.012186126783490181, -0.22090235352516174, -0.06389730423688889, -0.08712887018918991, -0.12299969047307968, 0.009092618711292744, -0.04610978439450264, 0.026861272752285004, -0.16372649371623993, -0.1269793063402176, -0.015340999700129032, -0.33343032002449036, 0.11501264572143555, -0.18180935084819794, 0.22509324550628662, -0.3017672896385193, -0.3139784336090088, -0.26045671105384827, 0.27635207772254944, 0.3674032390117645, -0.27873700857162476, 0.13311904668807983, -0.7307038903236389, -0.12853562831878662, 0.1382807493209839, -0.16386067867279053, 0.33290597796440125, -0.198405921459198, -0.2257559895515442, 0.26187536120414734, -0.04974152520298958, -0.005538417492061853, 0.005888260900974274, -0.023554878309369087, 0.06987083703279495, 0.2003588229417801, 0.07905478030443192, 0.00432928092777729, -0.0367513932287693, -0.17094816267490387, -0.20702965557575226, -0.48044413328170776, 0.17666961252689362, -0.15479601919651031, 0.08862187713384628, -0.21788550913333893, -0.03885273635387421, -0.1688234508037567, 0.10647092014551163, -0.28690198063850403, 0.405633807182312, 0.2747696042060852, -0.138816237449646, -0.11421198397874832, 0.04019107669591904, 0.022557467222213745, 0.12309195101261139, 0.09249671548604965, 0.2524076998233795, -0.0530921071767807, -0.17915032804012299, -0.021769028156995773, -0.16625894606113434, -0.21989919245243073, -0.23072029650211334, -0.29203057289123535, 0.03255920857191086, -0.02041056379675865, -0.14526385068893433, -0.027806561440229416, -0.23088642954826355, 0.06526441127061844, -0.31775787472724915, -0.18379943072795868, -0.5555775761604309, 0.30940574407577515, -0.5351438522338867, -0.2023640125989914, 0.05021704360842705, 0.4424184560775757, -0.3872668743133545, 0.05028977990150452, -0.6047748923301697, -0.17646241188049316, 0.13793131709098816, 0.4639267027378082, -0.3560173511505127, -0.28438717126846313, 0.026635654270648956, -0.20179125666618347, 0.43062296509742737, 0.22770549356937408, 0.4233042597770691, -0.42361772060394287, -0.16758130490779877, 0.07354135066270828, -0.49809029698371887, -0.01024558488279581, -0.3460841178894043, 0.8919344544410706, -0.5286242365837097, -0.05897253379225731, -0.13542115688323975, 0.3076808452606201, 0.5051536560058594, 0.30627334117889404, -0.06455430388450623, -0.06266212463378906, 0.03846936672925949, -0.08999700099229813, -0.09939911216497421, 0.06993068009614944, -0.0641823261976242, -0.08504069596529007, 0.05517960339784622, -0.08883673697710037, -0.011417970061302185, -0.03451809287071228, -0.024822257459163666, 0.09196794778108597, 0.08768259733915329, -0.0038499832153320312, -0.10517631471157074, -0.014451883733272552, -0.10184820741415024, 0.09142563492059708, 0.049955807626247406, -0.05931688845157623, 0.0927058681845665, -0.012175977230072021, 0.03255527466535568, -0.09392496943473816, 0.08075874298810959, 0.07894235104322433, 0.08285801857709885, -0.04951941594481468, 0.07612022012472153, 0.054917894303798676, -0.0567963607609272, -0.09653084725141525, 0.01792224496603012, -0.0886099711060524, -0.01830890402197838, 0.10588952153921127, -0.07148899883031845, 0.06418414413928986, -0.09832429140806198, 0.027747536078095436, 0.0018091010861098766, 0.0960315391421318, 0.027067046612501144, 0.029989728704094887, 0.0035899945069104433, -0.020854663103818893, 0.0808379203081131, 0.022568346932530403, 0.05840793997049332, 0.09800056368112564, 0.014687586575746536, -0.03758080676198006, -0.05972493439912796, -0.0702301412820816, 0.10361970216035843, -0.006982244551181793, 0.088834747672081, 0.034993261098861694, -0.10704343020915985, -0.011704622767865658, -0.03416435420513153, -0.020642532035708427, 0.09225501865148544, 0.02165081351995468, 0.06033528596162796, -0.06544771790504456, -0.035559430718421936, 0.09218170493841171, -0.094050332903862, -0.06352126598358154, 0.062125615775585175, 0.09302058070898056, -0.07708682864904404, 0.05398917943239212, -0.07783059775829315, 0.0730842724442482, 0.0018883496522903442, 0.007782191038131714, -0.029416009783744812, 0.012604884803295135, -0.027612954378128052, -0.09240425378084183, 0.05305018275976181, -0.08357995748519897, 0.06563439220190048, -0.04323689639568329, 0.024655036628246307, -0.018979497253894806, -0.013705849647521973, 0.052208311855793, -0.028774291276931763, -0.0645449236035347, 0.05867496877908707, -0.10236503928899765, -0.37363332509994507, -0.2671319544315338, -0.2889082729816437, 0.6227368712425232, 0.1142125278711319, 0.18488052487373352, -0.3636239767074585, 0.048372991383075714, -0.818608283996582, -0.42119675874710083, 0.2214636355638504, -0.027887282893061638, -0.02330133132636547, 0.2736679017543793, 0.38142263889312744, -0.420864462852478, -0.025970732793211937, 0.13180510699748993, -0.3115670382976532, 0.4303532540798187, 0.013237140141427517, 0.019139613956212997, 0.3407326340675354, 0.3930847942829132, -0.3809024393558502, -0.41589438915252686, -0.06644318252801895, -0.3055383861064911, 0.3360854983329773, -0.1341644674539566, 0.27703624963760376, 0.21076105535030365, -0.10272274166345596, 0.15384018421173096, 0.04720225930213928, -0.15376724302768707, 0.03638811782002449, 0.09249813109636307, 0.020821120589971542, -0.1076691523194313, 0.26042458415031433, -0.14940126240253448, -0.21825236082077026, -0.21678344905376434, 0.2782129943370819, 0.13457375764846802, -0.22190351784229279, 0.23647795617580414, 0.143766850233078, 0.1987684816122055, -0.12371412664651871, 0.1645434945821762, 0.04749301075935364, -0.016755323857069016, -0.16960600018501282, 0.06351864337921143, 0.15602988004684448, 0.16294267773628235, -0.04706253483891487, 0.2726275622844696, -0.0344013050198555, -0.017000097781419754, -0.39474108815193176, 0.09118180721998215, 0.26309841871261597, 0.0007035162998363376, -0.015093727968633175, 0.0924830287694931, -0.18020831048488617, -0.028015200048685074, -0.038638003170490265, -0.05313775688409805, 0.11274703592061996, -0.09395268559455872, 0.24934075772762299, -0.3017840087413788, -0.04652250185608864, -0.14418354630470276, -0.06554531306028366, 0.07516439259052277, -0.12196745723485947, -0.1857154220342636, 0.3108903169631958, 0.02437879703938961, -0.027893537655472755, -0.11463918536901474, -0.07936516404151917, 0.17067404091358185, 0.2570870816707611, -0.18380886316299438, 0.23393073678016663, 0.14775584638118744, 0.012527494691312313, 0.10801117867231369, -0.042460374534130096, 0.0010040359338745475, -0.03140360489487648, -0.007291361223906279, 0.0016572549939155579, -0.016782615333795547, -0.12304438650608063, 0.1279175877571106, 0.07174554467201233, 0.24948425590991974, 0.09376247227191925, 0.07670363783836365, -0.2050982266664505, -0.10372918099164963, 0.16390597820281982, 0.023318184539675713, -0.0906478762626648, -0.22769463062286377, 0.041293222457170486, -0.15806697309017181, 0.1729353964328766, 0.0668671652674675, 0.3449973464012146, -0.03989217430353165, 0.06225844472646713, -0.1428905427455902, 0.143227681517601, 0.21785494685173035, -0.29992273449897766, 0.17389729619026184, 0.11175795644521713, -0.1551346629858017, -0.23277467489242554, -0.08207996189594269, 0.2091432511806488, 0.030053874477744102, 0.014137637801468372, 0.3790183961391449, 0.09752167761325836, -0.1348055899143219, -0.0892392247915268, -0.15086404979228973, -0.014489506371319294, -0.36815157532691956, 0.15741018950939178, 0.0051116603426635265, -0.010857593268156052, -0.0629781037569046, 0.04651808738708496, -0.06165822595357895, -0.14240649342536926, 0.23363137245178223, 0.04664788022637367, -0.033339373767375946, 0.16042008996009827, -0.009272634983062744, -0.18560531735420227, 0.1913108378648758, 0.11835410445928574, -0.08886739611625671, 0.1319771111011505, -0.12014690041542053, -0.2816188335418701, -0.1612994521856308, 0.11235447973012924, -0.09537006169557571, -0.2487383335828781, 0.17053677141666412, -0.15288569033145905, -0.08758272975683212, -0.11259716004133224, -0.0035225865431129932, -0.0668790265917778, 0.34428659081459045, 0.01565287448465824, -0.08685683459043503, -0.09528804570436478, 0.10104432702064514, -0.07763724774122238, 0.0885683000087738, -0.1400758922100067, 0.02735021710395813, 0.13797621428966522, 0.015747487545013428, -0.07098528742790222, -0.3354032635688782, 0.06665945798158646, 0.11156130582094193, 0.17983603477478027, 0.013989844359457493, -0.07180851697921753, -0.06278232485055923, 0.1867084503173828, 0.04909863322973251, 0.05110292136669159, 0.07955995947122574, -0.04988175630569458, -0.08051526546478271, -0.18864136934280396, 0.17542296648025513, 0.24374432861804962, 0.15299661457538605, -0.11858772486448288, -0.020243756473064423, -0.16038157045841217, 0.23001912236213684, 0.01908702217042446, 0.22670748829841614, -0.19445455074310303, -0.09536337107419968, 0.10692070424556732, -0.08713769912719727, -0.004318488296121359, -0.040255844593048096, 0.09671744704246521, 0.3582092523574829, 0.001198762678541243, 0.0012569064274430275, -0.047212257981300354, 0.017572207376360893, -0.04606910049915314, 0.10072591155767441, -0.05246618390083313, -0.014413060620427132, 0.06426133215427399, -0.0764138475060463, -0.034319523721933365, 0.05915043503046036, -0.16107632219791412, 0.2337670475244522, -0.03573394566774368, -0.11261369287967682, 0.3242291808128357, -0.062331393361091614, -0.2101144790649414, 0.09371601045131683, 0.35817232728004456, 0.07018060237169266, 0.24426716566085815, -0.02850525453686714, 0.0601477213203907, -0.0036196254659444094, 0.07668845355510712, -0.017299028113484383, 0.029949616640806198, -0.005286507308483124, 0.05118260160088539, -0.14148810505867004, 0.0717940405011177, 0.14492247998714447, 0.139455184340477, -0.10159517079591751, 0.12093454599380493, -0.12292377650737762, 0.1786857396364212, -0.19183404743671417, 0.04156109690666199, -0.06873475015163422, -0.20319296419620514, 0.12131595611572266, -0.03186957910656929, 0.08166707307100296, -0.013055160641670227, 0.1358312964439392, -0.11605829000473022, 0.12157092243432999, -0.17149144411087036, 0.20481710135936737, 0.3702482283115387, -0.0446740984916687, -0.017918335273861885, -0.003726537339389324, 0.0249532088637352, -0.2255120575428009, -0.3132769763469696, 0.19372332096099854, -0.18768192827701569, 0.0007957746856845915, -0.2573587894439697, 0.10207279026508331, 0.09499102085828781, 0.10322688519954681, 0.2533726096153259, -0.17006021738052368, 0.06312444061040878, -0.02155735343694687, 0.044280096888542175, 0.025465426966547966, 0.007506104651838541, 0.10526162385940552, 0.07742632180452347, -0.18286646902561188, 0.0861213430762291, -0.1001054048538208, 0.367379367351532, -0.12617188692092896, 0.08995964378118515, 0.05590385943651199, -0.04775647819042206, -0.01977057382464409, 0.210451140999794, -0.03799651563167572, -0.1285422295331955, 0.18878614902496338, 0.004558136686682701, 0.22294554114341736, -0.0780753493309021, 0.09453197568655014, 0.15652960538864136, 0.277228444814682, 0.25567710399627686, 0.05993539094924927, -0.1185782328248024, -0.38009941577911377, -0.0968765988945961, -0.15934772789478302, -0.20516540110111237, -0.12638042867183685, -0.11354293674230576, 0.07867983728647232, 0.27723196148872375, 0.010752192698419094, -0.05848035216331482, 0.12651337683200836, 0.1628013253211975, -0.11407288908958435, 0.06930608302354813, -0.17899073660373688, 0.12823446094989777, -0.056073009967803955, 0.09250961989164352, -0.23162409663200378, -0.15210683643817902, -0.19811712205410004, 0.04205318167805672, 0.06183571368455887, 0.05891411006450653, 0.025317717343568802, -0.08224939554929733, -0.0825263261795044, -0.025071626529097557, 0.1853933036327362, 0.10167187452316284, -0.16774526238441467, -0.19373612105846405, -0.09788059443235397, 0.14627298712730408, 0.21264700591564178, 0.0882415622472763, -0.1965215653181076, 0.06261996179819107, 0.11645901948213577, -0.023100998252630234, -0.13285884261131287, 0.039674729108810425, -0.047704342752695084, 0.04893561825156212, -0.010788445360958576, 0.1266576647758484, -0.19239287078380585, -0.09723468869924545, -0.13224974274635315, -0.04693377763032913, 0.05624740570783615, -0.08538153022527695, -0.13576440513134003, -0.07065358757972717, -0.10977046191692352, 0.15306921303272247, 0.07855410873889923, 0.07695499062538147, 0.11238128691911697, -0.09485592693090439, 0.12676191329956055, 0.009128029458224773, 0.4048803746700287, 0.1320170760154724, 0.06011837720870972, -0.13095825910568237, -0.17213140428066254, 0.3533044457435608, -0.17512978613376617, -0.09114474058151245, -0.18644659221172333, 0.1707761287689209, -0.03767846152186394, -0.08403483033180237, -0.18040655553340912, -0.15026956796646118, 0.048548877239227295, 0.022770479321479797, 0.06926802545785904, -0.2917739748954773, -0.10922496020793915, 0.2579851448535919, 0.18575772643089294, 0.03273501247167587, -0.16367238759994507, 0.057754743844270706, 0.26558852195739746, 0.051853571087121964, 0.13012723624706268, -0.04857325553894043, 0.3364163637161255, -0.19763703644275665, 0.033540029078722, 0.01198819000273943, 0.10839352756738663, 0.2983192801475525, -0.14592278003692627, 0.275309681892395, -0.02271275222301483, -0.02960132248699665, -0.14994513988494873, 0.04961462318897247, 0.11237579584121704, 0.04227599501609802, -0.09131791442632675, -0.18938130140304565, 0.2375166118144989, 0.06636151671409607, 0.12111592292785645, 0.2063581645488739, 0.1072784960269928, 0.08515290915966034, -0.048145752400159836, 0.039473921060562134, -0.0904933512210846, 0.2461548000574112, -0.07382707297801971, -0.048690978437662125, -0.02154523693025112, 0.28890642523765564, -0.44555771350860596, 0.25353023409843445, 0.24361778795719147, 0.0201945211738348, 0.005298953969031572, -0.2953435182571411, 0.22778694331645966, 0.09491585195064545, -0.14902614057064056, -0.23308145999908447, 0.13249441981315613, -0.09198318421840668, -0.16508197784423828, -0.08201920986175537, -0.15765726566314697, -0.043681588023900986, 0.18461640179157257, 0.1585165113210678, 0.13144293427467346, -0.17275141179561615, -0.06526113301515579, -0.14674758911132812, 0.09666004776954651, -0.09933365881443024, 0.12643617391586304, -0.11964678019285202, -0.004615431651473045, -0.09795764088630676, 0.06603889912366867, 0.12700772285461426, -0.1829315721988678, 0.0617845319211483, 0.20696116983890533, 0.23846235871315002, 0.35312509536743164, 0.12205977737903595, 0.015185652300715446, 0.19868382811546326, -0.379844605922699, -0.05644172430038452, 0.11252966523170471, -0.13114945590496063, 0.0012040206929668784, -0.22361406683921814, -0.010323273949325085, 0.026797687634825706, -0.04160704091191292, 0.1652960330247879, 0.029380062595009804, 0.004141348879784346, -0.029899973422288895, -0.19637273252010345, 0.2304808348417282, 0.24612277746200562, 0.18718110024929047, -0.18182598054409027, 0.16400223970413208, -0.06048830226063728, -0.12565630674362183, 0.04380803927779198, 0.007440848741680384, -0.10769474506378174, -0.08075586706399918, -0.24290107190608978, 0.13564768433570862, 0.16665062308311462, 0.2827788293361664, 0.05894129350781441, -0.1921941041946411, 0.13987895846366882, -0.035413648933172226, 0.0657777413725853, -0.11057861894369125, -0.21356172859668732, -0.16244295239448547, -0.02334018610417843, 0.02586635760962963, 0.13989847898483276, -0.19136889278888702, -0.1720573753118515, 0.010262904688715935, -0.12986594438552856, 0.23748284578323364, 0.14875741302967072, -0.12345675379037857, -0.0735204666852951, 0.3306138813495636, -0.11019397526979446, 0.16187553107738495, -0.19275936484336853, -0.3469271957874298, 0.019938072189688683, -0.3011190891265869, 0.44667112827301025, 0.09787910431623459, -0.006820129696279764, -0.07420429587364197, -0.030349601060152054, -0.1574932336807251, 0.11306583881378174, 0.03953122720122337, -0.0752190425992012, 0.1000886932015419, -0.11152032762765884, -0.11622654646635056, 0.06132607161998749, -0.005286863073706627, -0.05989138036966324, -0.15100863575935364, -0.2095121443271637, -0.19353483617305756, -0.0029797442257404327, -0.004257883410900831, 0.005267527420073748, -0.10943179577589035, 0.007241251412779093, 0.1820753812789917, 0.08960970491170883, 0.025114746764302254, -0.03801702335476875, -0.24213778972625732, -0.01974939927458763, 0.032606255263090134, 0.11901874840259552, -0.21777412295341492, 0.10283280164003372, -0.0460677333176136, -0.06339998543262482, 0.12487513571977615, 0.043059565126895905, -0.031061392277479172, 0.1530883014202118, -0.09716087579727173, 0.21622444689273834, 0.06982995569705963, 0.06608089059591293, 0.12902310490608215, -0.027530914172530174, -0.07682722061872482, -0.07110493630170822, -0.1126227006316185, -0.23345783352851868, 0.1189265102148056, 0.04185923561453819, -0.12033680081367493, 0.1795715093612671, 0.23005273938179016, 0.12949182093143463, -0.06984289735555649, 0.06483028084039688, -0.01829131506383419, 0.2343897968530655, -0.15655860304832458, 0.0710846558213234, -0.16698738932609558, -0.06671938300132751, 0.21376241743564606, 0.06930465996265411, 0.1447017788887024, -0.04489239677786827, 0.06615198403596878, 0.17449888586997986, 0.15624549984931946, 0.02181900292634964, -0.04304295405745506, 0.1010013073682785, 0.2633715271949768, 0.010873094201087952, 0.14497672021389008, 0.19208967685699463, 0.1185574010014534, -0.1366279423236847, 0.23409776389598846, -0.2155989408493042, 0.06412573903799057, 0.33565664291381836, 0.09103430807590485, 0.2300737351179123, -0.23884056508541107, 0.21088795363903046, 0.117840975522995, -0.07747679203748703, 0.13235710561275482, -0.01721867360174656, 0.15041927993297577, 0.012239575386047363, -0.007604419253766537, 0.2391221970319748, 0.006156328599900007, 0.23902466893196106, 0.11395666748285294, 0.002978052943944931, -0.06421348452568054, 0.020553557202219963, -0.077554851770401, 0.040903061628341675, 0.27953389286994934, 0.062262162566185, -0.141731858253479, 0.17032675445079803, -0.06263069808483124, -0.027400478720664978, -0.00981474295258522, -0.10833480954170227, 0.11365751922130585, 0.06584679335355759, -0.2692755162715912, 0.21707510948181152, 0.09926309436559677, -0.2586587369441986, -0.20542919635772705, -0.24530595541000366, 0.1564514935016632, 0.04359443858265877, -0.23686066269874573, -0.07151251286268234, 0.15722155570983887, 0.15396994352340698, 0.1052621379494667, -0.16523541510105133, 0.0995689332485199, -0.030686775222420692, -0.09358339756727219, 0.003371438942849636, -0.09449902921915054, -0.14995208382606506, 0.051142748445272446, -0.060510046780109406, 0.10864479839801788, 0.10470352321863174, -0.1540682017803192, -0.0037883585318922997, -0.07953689247369766, 0.045022644102573395, -0.20342202484607697, 0.05734455958008766, 0.08994502574205399, -0.152126744389534, 0.048162393271923065, -0.10583993047475815, -0.06283009797334671, 0.40164151787757874, 0.013666694983839989, -0.15308672189712524, -0.21054086089134216, -0.053214337676763535, -0.01619621552526951, -0.06337539106607437, 0.3241384029388428, -0.0952787771821022, 0.04467391595244408, -0.20326527953147888, -0.03951258957386017, 0.13254642486572266, 0.205146923661232, -0.1145341768860817, 0.06882139295339584, 0.15102680027484894, -0.04245014116168022, -0.21116988360881805, 0.07178188860416412, -0.15776516497135162, 0.05161096528172493, 0.3217025399208069, 0.014388835988938808, 0.05992481857538223, 0.04696236550807953, -0.1526636928319931, -0.2309691607952118, 0.11036819219589233, 0.1997528225183487, -0.3205273151397705, -0.13739462196826935, 0.03918221592903137, -0.07825750857591629, 0.06954778730869293, 0.1931840479373932, -0.08808266371488571, -0.12191823869943619, -0.13174039125442505, 0.03833189234137535, 0.12087390571832657, 0.22485241293907166, -0.02498234622180462, 0.15657785534858704, -0.10606211423873901, -0.17590954899787903, 0.23931191861629486, -0.06405287981033325, -0.08316705375909805, -0.2696097195148468, -0.002331031020730734, 0.11738380044698715, 0.0162147656083107, 0.03478323668241501, 0.24072954058647156, -0.1655995100736618, 0.04226969927549362, 0.07617785036563873, 0.2565256357192993, -0.298505038022995, -0.1249612346291542, 0.12790656089782715, 0.055598001927137375, -0.006595667451620102, -0.16105428338050842, -0.002682654419913888, -0.08648717403411865, 0.06944216787815094, -0.18461120128631592, -0.10334140807390213, 0.027068834751844406, 0.19905416667461395, 0.21947120130062103, 0.1797744333744049, 0.10510221123695374, -0.03976542502641678, -0.036967359483242035, 0.12421400099992752, -0.12525303661823273, -0.13133127987384796, -0.22682780027389526, 0.022968865931034088, 0.012105172500014305, -0.1906299889087677, -0.08141704648733139, 0.05097883939743042, -0.011209068819880486, 0.06335189938545227, 0.12949763238430023, 0.15382598340511322, -0.021615400910377502, 0.003059717360883951, -0.12977857887744904, -0.11547669023275375, -0.045416153967380524, -0.2172972559928894, -0.0062600476667284966, 0.1660558581352234, 0.07976942509412766, 0.3468126356601715, -0.29507747292518616, 0.23702405393123627, -0.23624709248542786, 0.18777313828468323, -0.26165321469306946, -0.09659633040428162, -0.08481593430042267, -0.19788017868995667, -0.11185674369335175, 0.02692897617816925, 0.12656986713409424, -0.02274337224662304, -0.05978462100028992, 0.052275463938713074, -0.1893370896577835, 0.2498086541891098, 8.389791764784604e-05, 0.0489683635532856, -0.07100837677717209, 0.08940840512514114, 0.04925592243671417, 0.05934455990791321, -0.30222460627555847, 0.3754134476184845, -0.11335507780313492, -0.0014884165721014142, -0.03449123725295067, 0.1946936398744583, -0.13066163659095764, -0.11272536963224411, 0.11447949707508087, -0.09064653515815735, 0.042269185185432434, -0.05247503146529198, 0.11105959862470627, 0.14584393799304962, -0.03668076545000076, -0.35757288336753845, 0.05239179730415344, -0.00021637813188135624, 0.074718177318573, 0.00254795397631824, -0.02446056343615055, -0.04026361182332039, -0.2727930247783661, 0.08413130789995193, -0.21826305985450745, -0.20798234641551971, 0.08223129063844681, 0.04702094569802284, -0.022640559822320938, -0.060735076665878296, -0.0955050066113472, 0.13292019069194794, -0.3667255938053131, -0.26192495226860046, 0.0651150643825531, 0.008801584132015705, 0.14673936367034912, 0.016255423426628113, -0.18378053605556488, -0.1392592340707779, -0.12804488837718964, 0.029056383296847343, -0.007765357382595539, -0.0031614406034350395, 0.13455535471439362, -0.1237071081995964, -0.0020365905947983265, 0.22875337302684784, 0.013849522918462753, -0.058602359145879745, -0.1694701611995697, 0.01920539140701294, 0.051416024565696716, -0.17473946511745453, -0.1067616418004036, -0.22305941581726074, 0.20774726569652557, -0.07247091084718704, 0.24019408226013184, -0.09453683346509933, 0.1473868042230606, -0.02339901775121689, -0.14212192595005035, -0.021018747240304947, -0.18096165359020233, -0.22338557243347168, 0.16680122911930084, 0.12780465185642242, 0.07007654011249542, 0.1655416488647461, -0.0433373861014843, -0.07776511460542679, 0.10309561342000961, 0.023026101291179657, 0.035402651876211166, -0.20644362270832062, -0.06524238735437393, 0.1319762021303177, 0.25005149841308594, -0.07909215986728668, -0.1730678230524063, -0.003781378734856844, -0.0044635990634560585, 0.23932087421417236, -0.016778528690338135, -0.1988728642463684, -0.05856187269091606, 0.1740022897720337, -0.06290910392999649, 0.1712867170572281, 0.011386305093765259, 0.014338607899844646, 0.016302144154906273, 0.06146709620952606, 0.12530912458896637, -0.0837591141462326, 0.1865980178117752, -0.049124859273433685, 0.2598220705986023, -0.0308441910892725, 0.3025974929332733, -0.011450487188994884, 0.25181394815444946, -0.100792795419693, -0.2766510248184204, -0.0575900599360466, 0.04354776814579964, 0.06628721952438354, 0.21257172524929047, 0.04649995639920235, -0.3116826117038727, 0.02575301006436348, 0.18011058866977692, 0.04286505654454231, -0.024256335571408272, 0.08858409523963928, -0.07027789950370789, -0.014476770535111427, -0.17856645584106445, -0.08626990765333176, 0.016040466725826263, 0.45367270708084106, 0.021815309301018715, 0.4189433455467224, -0.19000698626041412, -0.07642120867967606, -0.1907503604888916, -0.2171044796705246, -0.02790217287838459, -0.015386289916932583, -0.10804396867752075, -0.04787746071815491, 0.15537728369235992, -0.18401353061199188, -0.10825788974761963, 0.04750263690948486, -0.10075630247592926, 0.026371769607067108, 0.038767583668231964, -0.07449368387460709, 0.04589501768350601, 0.06203198805451393, -0.12696826457977295, 0.39357078075408936, -0.10810577869415283, -0.04375112056732178, -0.2232435941696167, -0.02645162306725979, -0.16785378754138947, -0.16666744649410248, 0.047935035079717636, -0.012314517050981522, 0.17504392564296722, -0.17124049365520477, 0.10729142278432846, 0.03807063400745392, -0.06906697154045105, -0.02980629727244377, 0.13304336369037628, -0.043266866356134415, -0.03043324500322342, 0.1352786421775818, 0.1879301816225052, -0.10707411915063858, -0.09845785796642303, 0.3197079002857208, -0.006604719907045364, 0.1892816722393036, 0.2562183439731598, 0.06700291484594345, -0.0551489032804966, -0.10580883175134659, -0.040827907621860504, -0.1310460865497589, -0.004087566398084164, 0.02146555483341217, 0.10855240374803543, 0.011835584416985512, -0.023766934871673584, -0.17759980261325836, 0.004749368876218796, 0.22194409370422363, -0.049821604043245316, 0.014228235930204391, -0.11095187813043594, 0.07017238438129425, 0.01664469577372074, 0.10203472524881363, 0.0712420642375946, -0.14886732399463654, 0.00011169047502335161, 0.13084886968135834, 0.09963854402303696, 0.03610876202583313, -0.051787834614515305, -0.20289534330368042, -0.187253937125206, 0.3660883605480194, -0.08384302258491516, 0.13984902203083038, 0.1610640287399292, 0.1934179961681366, -0.13351964950561523, 0.1555764526128769, -0.37915584444999695, 0.23336254060268402, 0.0349024198949337, -0.043737731873989105, -0.051457732915878296, -0.030260737985372543, 0.05879240110516548, -0.1396820992231369, -0.08791181445121765, -0.04237882420420647, 0.4534085988998413, -0.1351727992296219, -0.5582665205001831, 0.02836509607732296, 0.10426686704158783, 0.09193781763315201, -0.15457677841186523, -0.0823696032166481, 0.02820000797510147, 0.2031385749578476, 0.1886470764875412, -0.1685381978750229, -0.037141840904951096, -0.0030301103834062815, 0.05689404159784317, -0.048164691776037216, 0.04886510223150253, 0.12941502034664154, 0.013792714104056358, 0.1216963604092598, 0.022856060415506363, -0.0866973027586937, 0.03064536862075329, 0.11921947449445724, -0.03837194666266441, 0.11493229120969772, -0.03701414167881012, 0.12918221950531006, 0.21566809713840485, 0.22172114253044128, 0.1102529764175415, 0.10713585466146469, 0.397596538066864, 0.15821009874343872, 0.1590012162923813, -0.06989138573408127, 0.12548920512199402, 0.18144822120666504, -0.20136789977550507, 0.2117736041545868, 0.4024070203304291, -0.09365781396627426, 0.20094966888427734, -0.1298302710056305, 0.02007685974240303, -0.16099873185157776, -0.005523047409951687, 0.09090501070022583, -0.110863097012043, -0.20645664632320404, 0.07450217008590698, 0.07144154608249664};

const static size_t I2H_BIAS_ROWS = 1;
const static size_t I2H_BIAS_COLS = 32;
const static float I2H_BIAS_DATA[] = {-0.0473567396402359, 0.09178342670202255, 0.08437227457761765, 0.044629473239183426, 0.1733105629682541, 0.14303496479988098, -0.02244824357330799, 0.054885417222976685, 0.04537704959511757, -0.019119756296277046, -0.1680172234773636, 0.15274474024772644, -0.058962758630514145, -0.09413085877895355, 0.0812438353896141, -0.06965281814336777, 0.00942102912813425, 0.047786060720682144, -0.02337896265089512, -0.027822522446513176, -0.03190302103757858, 0.12599250674247742, 0.058017585426568985, -0.18417882919311523, 0.01029185764491558, 0.2549152374267578, 0.25649067759513855, -0.11336508393287659, 0.19008499383926392, -0.0642884224653244, -0.07993051409721375, -0.22734682261943817};

const static size_t H2O_WEIGHT_T_ROWS = 32;
const static size_t H2O_WEIGHT_T_COLS = 18;
const static float H2O_WEIGHT_DATA[] = {0.1487364023923874, -0.9673027396202087, 0.40545853972435, 0.008909402415156364, -0.08568470925092697, 0.10112354159355164, 0.08071426302194595, 0.15119986236095428, -0.14978766441345215, 0.5316827893257141, 0.7926911115646362, -0.7539536356925964, 0.5736372470855713, -0.35861217975616455, 0.40617382526397705, -0.0023420793004333973, 0.0657302588224411, -0.6670702695846558, 0.34240904450416565, 0.9164695143699646, -0.1875147819519043, 0.33221304416656494, 0.06598088145256042, 0.07503614574670792, -0.22053158283233643, -0.9954131841659546, 0.20342415571212769, -0.011213300749659538, -0.4927367568016052, 0.45235198736190796, 0.48594996333122253, -0.7039415836334229, 0.2661247253417969, 0.18669138848781586, -0.27900028228759766, -0.10623887181282043, -0.23244692385196686, -0.8574001789093018, 0.3950098752975464, 0.5072287321090698, 0.39094382524490356, 0.35100680589675903, 0.23466113209724426, 0.25327882170677185, -0.3365945816040039, -0.16082310676574707, 0.0514652356505394, -0.9580062627792358, 0.6316224336624146, 0.6719674468040466, 0.07649492472410202, -0.13312050700187683, 0.27049776911735535, -0.7813493609428406, -0.16463468968868256, -0.8446094989776611, 0.20958049595355988, -0.15379436314105988, 0.24843771755695343, 0.3401986062526703, 0.4380011558532715, -0.5487158298492432, 0.185358464717865, 0.05517519637942314, 0.2189120203256607, -0.5518341660499573, -0.28460243344306946, -0.004652432166039944, 0.2897535562515259, 0.439288854598999, 0.09903035312891006, -0.32918664813041687, 0.026048319414258003, -0.12055860459804535, -0.25616931915283203, 0.09906931966543198, 0.5015602111816406, -0.09278187155723572, -0.08856002241373062, -0.24609750509262085, 0.94297194480896, -0.8841781616210938, -0.14557982981204987, 0.3659508526325226, -0.38473188877105713, -0.7903233170509338, -0.04355104640126228, 0.5900096893310547, -0.8532605767250061, 0.8794514536857605, 0.33582091331481934, 0.9562171697616577, 0.21111558377742767, -0.2635480463504791, 0.14879342913627625, 0.4778895974159241, 0.3794025182723999, -0.9078475832939148, -0.26061758399009705, -0.8689265847206116, -0.7011096477508545, 0.8822851777076721, -0.4215501844882965, -0.6103228330612183, 0.09846265614032745, 0.26270127296447754, -0.7479931712150574, 1.0453342199325562, 0.7732669711112976, -0.7326963543891907, 0.6291961073875427, 0.19534814357757568, 0.04799601808190346, 0.2011033445596695, 0.289885938167572, 0.46931180357933044, -0.38136550784111023, -0.5356627106666565, -0.31878387928009033, -0.8157950043678284, 0.11444372683763504, -0.09270251542329788, 0.7939371466636658, 0.08947118371725082, 0.17191241681575775, -0.948004961013794, 0.4083641767501831, 0.1880417764186859, -0.6412359476089478, 0.06443922221660614, -0.15247637033462524, -0.25168630480766296, 0.6667196750640869, -0.28918108344078064, -0.6167017817497253, 0.42887255549430847, 0.21645881235599518, 0.27797186374664307, -0.037864018231630325, 0.016241788864135742, -0.33901968598365784, -0.5194980502128601, -0.26531434059143066, 0.6739239692687988, 0.3077487349510193, -0.3942550718784332, -0.06969184428453445, -0.05946700647473335, 0.265521764755249, 0.21416348218917847, 0.13230133056640625, 0.5772930383682251, 0.04047708585858345, 0.437966525554657, 0.23232780396938324, -1.1491214036941528, -0.10896578431129456, 0.21421074867248535, -0.03332790359854698, 0.519665002822876, -0.34738749265670776, -0.6565947532653809, 0.5447928309440613, -0.04623072221875191, 0.2805754840373993, -0.010837984271347523, 0.022460803389549255, -0.2857753038406372, 0.32602459192276, -0.8956714868545532, -0.4285755157470703, -0.45226508378982544, 0.13578972220420837, -0.20932438969612122, 0.6460964679718018, -0.014759957790374756, -0.708663284778595, -0.05995330959558487, 0.18302632868289948, 0.5121615529060364, 0.4448555111885071, -0.6562662720680237, -0.27180376648902893, -0.25673753023147583, -0.20181787014007568, -0.08044565469026566, -0.2555687129497528, 0.48294952511787415, -0.08292500674724579, 0.6705756187438965, 0.34060460329055786, 0.0434722900390625, -0.6776668429374695, 0.5957159996032715, 0.09910725802183151, -0.1717592030763626, 0.21881063282489777, -0.30666276812553406, -0.05815276876091957, 0.8600438833236694, -0.3377690613269806, -0.5318800806999207, -0.09326434880495071, 0.38678133487701416, -0.5592117309570312, 0.5102830529212952, -0.5415135025978088, -0.5065539479255676, 0.356668084859848, 0.9134097099304199, 0.08138429373502731, -0.3196586072444916, -0.2636624276638031, -0.18920087814331055, 0.07225602120161057, 0.3824551999568939, 0.3653528690338135, 0.12574832141399384, -0.04068831726908684, 0.11847852915525436, 0.05256377533078194, 0.069521963596344, 0.17263023555278778, -0.1289600282907486, -0.00941143836826086, -0.6190991401672363, 0.07032335549592972, -0.7147119641304016, -0.04668363556265831, 0.212668776512146, -0.6296001672744751, 0.22219185531139374, 0.2503625750541687, 0.5491642355918884, 0.6787424683570862, 0.39583903551101685, -0.5006422400474548, -0.33225929737091064, -0.43001726269721985, 0.08008529990911484, -0.34161752462387085, -0.002670005429536104, 0.022451631724834442, -0.005846451502293348, 0.7573491930961609, -0.22421233355998993, -0.4508548676967621, 0.0786108747124672, -0.1639656126499176, -0.6209171414375305, 0.16101032495498657, 1.2082016468048096, 0.6174865961074829, -0.4602448344230652, 0.688129186630249, 0.07269872725009918, -0.2056814283132553, -0.7643959522247314, -0.26455163955688477, -0.22784635424613953, -0.10617425292730331, -0.16995742917060852, -0.105243980884552, 0.21380522847175598, 0.5578610301017761, 0.2602081298828125, 0.3273172378540039, -0.3894493877887726, -0.2112312912940979, 0.09572882950305939, 0.27267828583717346, -0.7186123728752136, 0.004341872874647379, 0.5900124907493591, 0.22657707333564758, 0.6111459136009216, 0.03281591460108757, 0.19928011298179626, 0.26504620909690857, -0.23189575970172882, 0.20553791522979736, -0.45034685730934143, -0.3040394186973572, 0.4494366943836212, -0.45145726203918457, -0.015851357951760292, -0.04954284429550171, -0.9673184752464294, -0.21323904395103455, 0.868356466293335, 0.3103364408016205, -0.3990684449672699, -0.7104539275169373, -0.8222312331199646, -0.4471304416656494, -0.5364965200424194, -0.3019178807735443, -0.1542326807975769, 0.7592676877975464, 1.1219611167907715, 0.1504235714673996, -0.055111270397901535, 0.6287736296653748, -0.9343048930168152, -0.43264690041542053, 1.1035335063934326, 0.37099596858024597, -0.03907031565904617, -0.2611817717552185, 0.16804848611354828, 0.14469294250011444, 0.11901888996362686, -0.22199520468711853, -0.5056409239768982, -0.14604400098323822, -0.030507663264870644, -0.10306656360626221, 0.0312278363853693, -0.1497892141342163, 0.275175541639328, -0.3701033592224121, 0.3645666539669037, 0.3376285433769226, -0.21868789196014404, -0.09220143407583237, -0.07021107524633408, 0.5150766968727112, -0.0386463962495327, 0.001772096729837358, -0.6251528263092041, 0.016427963972091675, -0.49772346019744873, -0.23699462413787842, 0.05202791094779968, -0.10426928848028183, 0.6466006636619568, 0.19479869306087494, -0.4170166254043579, -0.8271733522415161, -0.0278706643730402, -0.06962691247463226, 0.23204171657562256, 0.30288559198379517, 0.16809067130088806, -0.28643301129341125, -0.46852025389671326, 0.1372644603252411, 0.5803002715110779, -0.42269566655158997, 0.8320494294166565, -0.12205548584461212, 0.015232430770993233, -0.4527246356010437, -0.5517641305923462, -0.338967889547348, 0.5861365795135498, -0.38925397396087646, 0.18164987862110138, -0.23654060065746307, 0.7178013324737549, 0.08140373229980469, 0.07267599552869797, -0.3750123977661133, -0.150856152176857, -0.21365953981876373, -0.6303690671920776, -0.17111718654632568, -0.551017701625824, 0.005014150869101286, -0.04820739105343819, -0.33821994066238403, -0.13014431297779083, -0.6666228771209717, 0.704073429107666, 0.721415102481842, 0.0645214319229126, 0.46053287386894226, 0.6488116383552551, -0.21889594197273254, 0.0073800222016870975, -0.07947719097137451, 0.08057721704244614, -0.21878761053085327, -0.07287292927503586, 0.14945325255393982, -0.4513969123363495, -0.08007211983203888, -0.36898988485336304, -0.46223264932632446, 0.09339889883995056, 0.45561498403549194, -0.06282758712768555, -0.09416858106851578, -0.02130633220076561, 0.1979489028453827, 0.2597869634628296, 1.2400099039077759, -0.14534848928451538, 0.1475246697664261, -0.14176392555236816, -0.37124690413475037, -0.3731989562511444, -0.24125468730926514, 0.03178594261407852, 0.19403663277626038, 0.04041355103254318, 0.3491811454296112, -0.39395371079444885, 0.609345555305481, -0.49920690059661865, 0.027973027899861336, -0.2785126268863678, -0.5025084018707275, 0.5811503529548645, -0.5671788454055786, -0.08446075022220612, 0.2857683002948761, -0.39843109250068665, -0.4383135735988617, 0.1341424584388733, -0.4840940237045288, -0.09614627063274384, 0.3353334963321686, 0.34425073862075806, -0.4118049442768097, -0.18355749547481537, -0.003381608286872506, 0.7895817756652832, -0.1947169154882431, -0.6717007160186768, 0.7083239555358887, 0.21660937368869781, -0.6930266618728638, -0.29255712032318115, 0.44851845502853394, 0.4046150743961334, 0.6358916759490967, 0.35393837094306946, 0.016611412167549133, -0.1897682249546051, 0.20311692357063293, 0.1373191922903061, -0.2040683925151825, -0.695169985294342, 0.13941632211208344, -0.6141111254692078, 0.24195224046707153, 0.31055697798728943, -0.22169999778270721, -0.0266483873128891, -0.5504469275474548, 0.32830092310905457, -0.26866036653518677, 0.12106888741254807, 0.09936314076185226, -0.10370675474405289, -0.0035679007414728403, -0.07124997675418854, -0.5249062776565552, -0.2634556293487549, -0.31241336464881897, 1.549119234085083, -0.0039815823547542095, -0.13855135440826416, 0.3288443386554718, 0.3655479848384857, -0.2691795825958252, 0.4886636435985565, 0.20214499533176422, -0.33289942145347595, 0.4373832941055298, 0.5476888418197632, 0.4349309504032135, 0.3058692514896393, 0.842637300491333, -0.8557524085044861, 0.7533252239227295, -1.109527826309204, -0.4708929657936096, -0.6271382570266724, -0.07927621155977249, -0.43663421273231506, 1.0931817293167114, 0.1229749321937561, -0.5704778432846069, -0.5713704824447632, -0.2745572030544281, 0.16385561227798462, -0.08234836906194687, 0.6063944101333618, -0.16532683372497559, 0.23864807188510895, 0.31105196475982666, 0.40774551033973694, -0.502232551574707, 0.47964105010032654, -0.3699300289154053, -0.13992096483707428, -0.1412193924188614, 0.2986662685871124, -0.30806219577789307, -0.6313374042510986, 0.5635545253753662, 0.14651328325271606, -0.3845158517360687, -0.7165989279747009, -0.10907149314880371, 0.571526825428009, 0.15630538761615753, 0.7742831110954285, 0.15807537734508514, -0.3302413523197174, 0.5447820425033569, -0.2427387237548828, -0.050200339406728745, -0.16113118827342987, -0.6463236212730408, -0.22813774645328522, -0.3418574929237366, -0.19151055812835693, -0.21634849905967712, 0.4402748942375183, -0.3262629508972168, 1.1959288120269775, -0.203572079539299, 0.37794145941734314, -0.11874464899301529, 0.0195153895765543, 0.18034516274929047, -0.20968061685562134, -0.29309308528900146, -0.03317440301179886, 0.47269871830940247, 0.6636669039726257, -0.5848175287246704, -0.4779912531375885, -0.15661558508872986, 0.05804692953824997, -0.618513286113739, 0.15314742922782898, 0.15060755610466003, 0.562391996383667, 0.22581462562084198, 0.35318702459335327, 0.12397285550832748, -0.11811207979917526, 0.0749712586402893, 0.18801778554916382, -0.10895943641662598, -0.5871010422706604, -0.6897633671760559, 0.8282621502876282, -0.1329713761806488, -0.04150545224547386, -0.790829598903656, 0.294320672750473, -0.26243647933006287, 0.38917696475982666, -0.638762354850769, 1.210328221321106, -0.16412413120269775, -0.34745365381240845, -0.5322024822235107, -0.40816494822502136, -0.272381991147995, -0.2563520073890686, -0.2290675938129425, 0.2033536434173584, 0.9081340432167053, 0.38330110907554626, -0.13821592926979065, 0.23955270648002625, -0.5391520857810974, -0.2424483597278595, -0.16012583673000336, 0.6071139574050903};

const static size_t H2O_BIAS_ROWS = 1;
const static size_t H2O_BIAS_COLS = 18;
const static float H2O_BIAS_DATA[] = {0.3178441822528839, 0.023315932601690292, 0.47152599692344666, 0.12040812522172928, 0.33985257148742676, 0.05069281533360481, 0.3008178472518921, -0.9334249496459961, -0.11264541745185852, -0.3999903202056885, -0.11353566497564316, 0.2740391194820404, -0.12427584081888199, -0.3627887964248657, -0.1864863485097885, 0.09886975586414337, 0.0203243400901556, 0.23251840472221375};



