#include <stdint.h>
#include <stddef.h>
#include <math.h>
#include <float.h>

const static size_t I2H_WEIGHT_TRANSPOSED_ROWS = 65;
const static size_t I2H_WEIGHT_TRANSPOSED_COLS = 8;
const static float I2H_WEIGHT_TRANSPOSED_DATA[] = {-0.22056233882904053, -0.5445289015769958, -1.4880341291427612, 1.5784001350402832, -0.16301146149635315, -0.16865764558315277, 0.29878923296928406, 0.2201695740222931, 0.8778786659240723, -0.2883206903934479, -0.8420284986495972, -0.15210051834583282, 0.6966367959976196, 0.4086097180843353, -0.7361068725585938, 0.5725702047348022, -0.5653043985366821, 0.4393162727355957, -0.44079092144966125, -0.3867509365081787, -0.10483505576848984, 0.9980907440185547, -0.9887681603431702, 0.1950952112674713, 0.3877524733543396, -0.10913165658712387, 0.36397412419319153, -0.17939472198486328, 0.8711983561515808, 0.33874601125717163, -1.1554205417633057, 1.2216038703918457, 0.3368262052536011, 0.19817738234996796, -0.16780400276184082, 1.0295637845993042, -1.1464576721191406, -1.030827283859253, -1.017057180404663, -0.09611154347658157, -0.17352604866027832, 0.0008749326807446778, -0.44521191716194153, -0.5100529789924622, 1.154786467552185, 1.3192801475524902, 0.07430119812488556, 0.7973409295082092, -0.13367924094200134, -0.6860291957855225, -0.6138551235198975, -0.985527515411377, -0.42266544699668884, 0.6953415274620056, -0.7468082904815674, 0.2835196852684021, -0.5480785369873047, -1.1024876832962036, 0.15581831336021423, -0.5359770059585571, 0.06992002576589584, 0.36091822385787964, 0.2004469633102417, 0.25911614298820496, -0.5145447850227356, -0.9250906109809875, -1.9585603475570679, 0.9708248376846313, 0.17949384450912476, 0.3074563145637512, 0.08112186938524246, -0.9977569580078125, 1.248617172241211, -0.47196516394615173, 0.1786876767873764, -0.08992541581392288, 0.20938144624233246, 0.5660440325737, -0.28594329953193665, -0.2618272304534912, 0.7997650504112244, -2.266090154647827, 0.6357631683349609, -1.0351186990737915, -0.41855546832084656, 2.446444272994995, -0.29748162627220154, -0.8602061867713928, -0.2816521227359772, 0.33146360516548157, 0.2724591791629791, 0.2608029544353485, 0.3696247935295105, 0.8034546375274658, -1.318986177444458, 0.06010898947715759, 0.3789173364639282, -0.5501598119735718, -0.05503534525632858, -0.33336925506591797, 0.0339132584631443, 0.4582161605358124, -0.7721455693244934, 0.1804044097661972, -0.18448209762573242, -0.19835159182548523, 0.3940383493900299, -0.7394506335258484, -0.1343013346195221, 0.058757126331329346, -0.9584357142448425, -0.13282684981822968, -0.4102293848991394, 0.08812408894300461, -1.3998184204101562, 1.9522809982299805, -0.9248824119567871, 0.3025306165218353, 0.7010155916213989, 0.14140810072422028, 0.3379433751106262, 0.11120046675205231, -0.28723031282424927, -0.8179160356521606, 0.1388128101825714, 1.032361388206482, -1.6501175165176392, -0.018833378329873085, 0.1658618301153183, 1.0198549032211304, -0.5928294062614441, -0.007298787124454975, -0.2630716860294342, 0.05014793574810028, -1.0871902704238892, 0.3553982973098755, 0.5917050838470459, 0.40154290199279785, -0.27364441752433777, -0.4038631319999695, 0.5090861320495605, 0.1896083652973175, -1.1945215463638306, 0.46651339530944824, 1.073115348815918, 0.37899112701416016, 0.5078564882278442, 1.3457762002944946, 0.8520340919494629, -0.21555659174919128, -0.36792558431625366, -0.05780348181724548, 0.8537712097167969, 0.45871031284332275, 0.5683403015136719, 0.4943389296531677, 0.4367974102497101, 0.1869802474975586, -0.9404706954956055, 0.7632309198379517, -0.050557028502225876, -0.6604120135307312, -0.190842866897583, 0.9554666876792908, -0.987319827079773, -1.0238993167877197, -0.3289012908935547, 0.3237164318561554, -1.4630752801895142, 0.4468414783477783, 0.6136600971221924, 0.2551760673522949, -1.6767191886901855, 3.344367504119873, -1.3466229438781738, 2.247783899307251, 0.7519529461860657, -0.5500330924987793, 1.109465479850769, -1.1273874044418335, 0.7046018838882446, 1.0245908498764038, 0.08269412070512772, 0.35880646109580994, 0.7432573437690735, 0.3995353579521179, 0.5637858510017395, 0.5147493481636047, 0.29226061701774597, -0.8980712890625, -1.6473246812820435, -0.0331864207983017, -0.10664951801300049, -1.4858497381210327, 1.5275866985321045, 0.13720105588436127, 0.21374012529850006, -0.11122825741767883, -0.32155707478523254, 0.9108506441116333, 2.2761478424072266, 0.8525273203849792, -1.1254812479019165, 1.093297004699707, 0.335422545671463, 1.4163094758987427, -0.2639368176460266, 0.040650878101587296, 0.04758016765117645, 0.30716222524642944, -0.6233687400817871, 0.2942352890968323, -0.4008816182613373, -1.3819122314453125, 0.7544040679931641, -0.023905189707875252, -0.6218045353889465, 0.30810391902923584, 0.46367135643959045, 0.1614861786365509, 0.30643054842948914, -0.3214750587940216, 0.5114080905914307, -0.6793379783630371, -0.5766193866729736, 1.0868762731552124, -0.07394620031118393, 0.16666795313358307, -0.11790665984153748, -0.5875626802444458, 0.3576049506664276, -0.4320162236690521, -1.0019477605819702, -0.16996020078659058, -0.018606357276439667, -0.014018584042787552, 0.27643221616744995, -1.0741291046142578, 0.4088974595069885, -0.16777390241622925, -0.2349715530872345, -0.3827265202999115, -0.310518741607666, 0.006706611253321171, -0.12174204736948013, -0.3267807364463806, 0.1038658544421196, 0.22191740572452545, -0.30522921681404114, 0.42562997341156006, -0.058842144906520844, -0.09732972085475922, -0.16213269531726837, -0.5955889225006104, 0.421308308839798, -0.31346386671066284, -0.18977715075016022, 0.7643144726753235, 0.20212265849113464, -0.032585225999355316, -0.11216428130865097, -0.6876261830329895, 1.1176520586013794, -0.594240128993988, -0.28922581672668457, -0.092575304210186, 0.9169341325759888, -0.5082231163978577, 0.46627381443977356, -0.02931344136595726, 0.6525116562843323, -0.4980955719947815, -0.009611637331545353, -1.40736722946167, -0.24950620532035828, 0.5315983891487122, 0.14217215776443481, -0.4351551830768585, 0.8372763395309448, 0.5388099551200867, 0.22188149392604828, 0.6159830093383789, 0.9241054058074951, -0.5722841620445251, 0.13291744887828827, 0.5518627762794495, 0.6947982907295227, -0.7519813179969788, 0.5208909511566162, -0.20108138024806976, 0.7434518337249756, -0.0631643682718277, 0.11610396206378937, 0.4187033474445343, 1.1474653482437134, -0.5916874408721924, -0.7307285666465759, 0.3873826265335083, 0.14658164978027344, -0.7641339898109436, -0.21653752028942108, -0.9092718958854675, -0.029555659741163254, 0.03452954813838005, -0.530010461807251, 0.4629552662372589, 0.42916709184646606, -0.2651840150356293, 0.07255659252405167, -0.40107086300849915, 0.5809385180473328, -0.32784131169319153, -0.5674604177474976, -0.2707398533821106, 0.39537468552589417, 0.07171919196844101, 0.4820045530796051, -0.651497483253479, 0.9223848581314087, -0.555026113986969, -0.1808682680130005, -0.8827642798423767, -0.8725453615188599, 0.6908257007598877, -0.19145426154136658, -0.7197420001029968, 0.3023679554462433, 0.5341452956199646, -0.3686653971672058, 0.5059438943862915, -0.13428448140621185, 0.03271864727139473, -0.22774472832679749, -0.49208754301071167, 0.40998175740242004, -0.18218521773815155, -0.6628050804138184, 0.08310502767562866, 0.5103304982185364, -0.2334311306476593, 0.3567759096622467, -1.004797339439392, 1.2061718702316284, -0.5838801860809326, -0.3026597499847412, 1.7072882652282715, 0.35816097259521484, -0.8199576139450073, -0.34566164016723633, -0.2164117842912674, -0.31940922141075134, -0.4746541678905487, 0.2483784556388855, 1.0710276365280151, 0.3295740485191345, 0.23172873258590698, 0.026092393323779106, -0.3906598687171936, 0.7559579014778137, -0.9301759600639343, -0.9053908586502075, -0.5652533769607544, 0.05899427831172943, 0.22112734615802765, 0.8335596919059753, -1.1643551588058472, 1.0202462673187256, -0.044175468385219574, 0.10618259012699127, -0.45896968245506287, -0.1702166646718979, 0.10360905528068542, -0.044404514133930206, -0.0953102633357048, -0.009099348448216915, 0.22559696435928345, -0.7856911420822144, 0.0006570100667886436, -0.0051975976675748825, -0.3345353305339813, 0.008724674582481384, -0.6102069616317749, 0.0033767693676054478, 0.12078829109668732, 0.08148522675037384, 0.6597357392311096, 0.9547668695449829, -0.7065236568450928, 0.21212072670459747, 0.5197191834449768, 0.4508604407310486, -0.7509638071060181, -0.1550876945257187, 0.40639862418174744, 0.4584028720855713, -0.26889219880104065, 0.05687931180000305, -0.6809260845184326, 1.2209994792938232, -0.7815179824829102, 0.41705840826034546, 0.6918545365333557, 0.8416944146156311, -0.358018159866333, -0.2101120948791504, 0.15804047882556915, 1.3364711999893188, -0.9517135620117188, 0.25134146213531494, 0.686445951461792, 0.456373006105423, -0.12737031280994415, -0.12389238178730011, -0.07890713214874268, 0.6105591058731079, -0.5834413170814514, 0.898172914981842, 0.9725095629692078, -0.9149321913719177, -1.7144266366958618, -1.985653042793274, -0.580812931060791, 1.1260417699813843, -0.11079749464988708, 0.051998645067214966, -0.022719554603099823, 0.10843619704246521, 0.009350404143333435, -0.0904029831290245, -0.0635533332824707, 0.08131949603557587, 0.015904098749160767, -0.05937457084655762, 0.11693750321865082, -0.10221691429615021, 0.06706079840660095, 0.09001708775758743, -0.020199621096253395, 0.12425915151834488, -0.0503891296684742, 0.10104428231716156, 0.07514087855815887, -0.10059726983308792, -0.11705751717090607, -0.04773548245429993, 0.05199030041694641, -0.07279627025127411, 0.10718251764774323, -0.8948207497596741, -1.4596918821334839, -1.9058171510696411, 1.0619168281555176, -0.2069217711687088, -1.1990911960601807, -0.6252226829528809, 1.499711275100708, 0.6334455013275146, -0.23675210773944855, -0.2888937294483185, 0.12414190173149109, 0.023597892373800278, 0.22931544482707977, 0.10658412426710129, -0.25132590532302856, 0.03452131897211075, 0.6199908256530762, -0.051396287977695465, -0.2813243865966797, -0.28182506561279297, -0.05971352383494377, -0.15741053223609924, -0.15729457139968872, -0.044838614761829376, -0.07856590300798416, 0.37527918815612793, -0.15808264911174774, -0.0014091961784288287, 0.15603530406951904, 0.1940428465604782, -0.2937985062599182, 0.08773252367973328, -0.12259241193532944, -0.04251736402511597, 0.4868013262748718, 0.1616508662700653, -0.015723751857876778, 0.030933501198887825, 0.18404066562652588, -0.10891218483448029, -0.19535505771636963, 0.3890098035335541, 0.032097384333610535, 0.17331591248512268, -0.13730552792549133, -0.032666996121406555, 0.013735941611230373, 0.14634768664836884, 0.09424076229333878, 0.3579239249229431, 0.2839960753917694, 0.04823106527328491, 0.49146679043769836, -0.04056965559720993, -0.06465743482112885, 0.1743188351392746, -0.22763031721115112, 0.15721721947193146, -0.4080217778682709, -0.36808356642723083, -0.18753764033317566, 0.6002964973449707, 0.24344490468502045, -0.11145586520433426, -0.42270204424858093, -0.1382153034210205, 0.17690467834472656, 0.02833409421145916, -0.1695079505443573, -0.37457069754600525, -0.00996304489672184};
const static size_t I2H_BIAS_ROWS = 1;
const static size_t I2H_BIAS_COLS = 8;
const static float I2H_BIAS_DATA[] = {0.1246831864118576, 0.11704673618078232, 0.3629106879234314, -0.36507219076156616, 0.05354636535048485, 0.13579145073890686, 0.09144829958677292, 0.06292733550071716};

const static size_t H2O_WEIGHT_TRANSPOSED_ROWS = 8;
const static size_t H2O_WEIGHT_TRANSPOSED_COLS = 18;
const static float H2O_WEIGHT_TRANSPOSED_DATA[] = {0.32292377948760986, -0.1778685301542282, 0.14098235964775085, 0.8388192653656006, 0.6007500886917114, 0.5694200992584229, 0.8435189723968506, 0.5565176010131836, -0.9428585767745972, -0.6269739866256714, -0.21018080413341522, 0.06792563945055008, 0.42195600271224976, 0.05567276105284691, -0.6657982468605042, 0.6916659474372864, 0.009123490191996098, -1.7995580434799194, -1.0572466850280762, -0.9603010416030884, -0.3125104010105133, -0.20038209855556488, -0.012040261179208755, 0.3460760712623596, 0.1414012759923935, 0.9980661273002625, -0.5068430304527283, 0.6889795660972595, -1.9027481079101562, -0.32694318890571594, -0.5660732984542847, 1.190251111984253, 0.0776563361287117, 0.3414883613586426, 1.107852816581726, -1.1176975965499878, -0.7683113813400269, -1.773284912109375, 0.15599851310253143, 0.7298339605331421, 1.2802772521972656, 1.0656992197036743, 0.4248459041118622, 1.25814688205719, 1.2352313995361328, -0.6800001859664917, -0.163273423910141, -1.3268046379089355, -0.21131037175655365, -0.6499480605125427, 0.9568055868148804, 1.49086594581604, -0.6190093755722046, -1.0616546869277954, -0.059809327125549316, -2.6813409328460693, 0.5133702754974365, -0.22879168391227722, -0.22148483991622925, 0.2922234833240509, -0.4717801511287689, 2.086668014526367, -0.20673657953739166, 1.607925295829773, 1.4930150508880615, -2.653135061264038, 0.30054545402526855, 1.9138413667678833, 0.19747503101825714, -0.4323323965072632, 1.510607123374939, -1.8944491147994995, 1.8345158100128174, -2.1576614379882812, 0.13300423324108124, 0.8445901870727539, 0.08145767450332642, 0.09398173540830612, 0.6036058068275452, 0.5445987582206726, 0.140527606010437, 0.17573943734169006, -0.8286934494972229, -2.4585084915161133, 0.7016338109970093, 0.4466969966888428, -0.24228034913539886, -0.6236001253128052, 0.41202935576438904, -1.7571251392364502, -0.24450728297233582, -0.7244576811790466, 1.2724664211273193, -0.09568600356578827, -0.10507815331220627, -0.8029775023460388, 0.32466888427734375, -1.3926361799240112, -0.46424758434295654, -0.08053023368120193, -0.21601855754852295, -0.33695197105407715, 1.8061195611953735, -0.5717275142669678, 1.5509816408157349, 0.02653324604034424, 0.0842544436454773, -0.8464691638946533, 0.10616321116685867, 1.1701029539108276, -0.48926517367362976, -0.9776669144630432, -1.014452576637268, -1.5263299942016602, -0.956154465675354, 1.0477501153945923, -1.0929399728775024, 0.01716705597937107, 0.19402512907981873, 1.580487847328186, -0.05882245674729347, 0.07899786531925201, 0.4913538992404938, -0.83067387342453, -0.021794738247990608, 0.8121017813682556, 0.6290821433067322, 0.6611428260803223, 0.04492155835032463, -1.0910700559616089, -0.020185187458992004, 0.6267949938774109, -0.33446788787841797, 0.2606058120727539, -0.004560462199151516, -1.8868322372436523, -0.9689763784408569, 0.3173428773880005, -0.04124332219362259, -0.22186972200870514, 0.8553322553634644, 0.821946382522583, 0.0026105595752596855, 0.3950701951980591};
const static size_t H2O_BIAS_ROWS = 1;
const static size_t H2O_BIAS_COLS = 18;
const static float H2O_BIAS_DATA[] = {0.5787158012390137, 0.23983223736286163, 0.46414896845817566, 0.6758988499641418, 0.6175705790519714, -0.4079698920249939, 0.519420325756073, -1.158442497253418, 0.3729686439037323, -0.30275866389274597, -0.6755813360214233, 0.4953509569168091, -0.7528885006904602, -0.5414220690727234, -0.048147380352020264, 0.513969898223877, -0.13133767247200012, 0.8141130805015564};

